{
  "net.0.weight": [
    [
      -0.4663286507129669,
      -0.6394160389900208,
      0.7012056112289429,
      1.4887449741363525
    ],
    [
      0.21111883223056793,
      -0.565530002117157,
      -2.4155092239379883,
      1.2154220342636108
    ],
    [
      1.702841877937317,
      -2.1417477130889893,
      0.10418614000082016,
      0.993336021900177
    ],
    [
      0.7225143909454346,
      0.518490195274353,
      -0.1306706964969635,
      -2.179753303527832
    ],
    [
      -0.40370699763298035,
      0.8721981644630432,
      -0.06384172290563583,
      1.102313756942749
    ],
    [
      -1.9358071088790894,
      1.4018847942352295,
      -1.509720802307129,
      -0.13572324812412262
    ],
    [
      0.5381551384925842,
      -1.1878695487976074,
      -1.1799163818359375,
      -1.1198468208312988
    ],
    [
      -0.5309780240058899,
      0.3378060460090637,
      0.4311363697052002,
      -1.3185205459594727
    ],
    [
      -0.08044981211423874,
      0.019157247617840767,
      0.04191530868411064,
      1.8358855247497559
    ],
    [
      -0.22811146080493927,
      1.1871654987335205,
      0.01194834802299738,
      2.602691650390625
    ],
    [
      0.8451007604598999,
      -0.400166392326355,
      0.7617232799530029,
      -0.24586695432662964
    ],
    [
      1.774067997932434,
      -2.0228352546691895,
      0.01841885969042778,
      0.5091383457183838
    ],
    [
      0.1637580543756485,
      0.25901374220848083,
      -0.24065737426280975,
      -1.9006372690200806
    ],
    [
      -1.4186793565750122,
      0.8895477652549744,
      -0.02565888874232769,
      0.8007645606994629
    ],
    [
      -1.5534008741378784,
      1.4079835414886475,
      0.34105241298675537,
      -0.007814920507371426
    ],
    [
      1.6584508419036865,
      -0.47712352871894836,
      0.8390519022941589,
      0.2857626676559448
    ]
  ],
  "net.0.bias": [
    0.3230545222759247,
    1.5701751708984375,
    -1.284619927406311,
    -1.353715419769287,
    1.2830042839050293,
    -0.407273530960083,
    -0.8043972849845886,
    -1.686623215675354,
    2.414271831512451,
    -3.4185242652893066,
    -1.1413311958312988,
    0.05211583152413368,
    -1.970846176147461,
    -0.11713162064552307,
    -0.17420044541358948,
    1.7496790885925293
  ],
  "net.2.weight": [
    [
      1.5860059261322021,
      1.6936538219451904,
      -0.2824631929397583,
      -1.806703805923462,
      0.6858486533164978,
      1.3645133972167969,
      -0.6083410382270813,
      -1.8110560178756714,
      2.225205898284912,
      -0.39970970153808594,
      1.3624145984649658,
      -1.3499480485916138,
      -2.243817090988159,
      -0.26825693249702454,
      2.164430856704712,
      -1.8147672414779663
    ],
    [
      -0.47915464639663696,
      0.11271533370018005,
      -1.1571016311645508,
      -0.4480876624584198,
      -0.2612716555595398,
      0.577471137046814,
      -0.6895870566368103,
      -0.8448579907417297,
      -1.0830029249191284,
      0.4642462134361267,
      -0.20257465541362762,
      -0.05887366831302643,
      -0.03990614414215088,
      0.3623107373714447,
      1.8206409215927124,
      -0.011628751643002033
    ],
    [
      2.2108466625213623,
      0.30258989334106445,
      -0.9339101910591125,
      -1.121741771697998,
      1.3450642824172974,
      -0.6062235832214355,
      0.6727215647697449,
      -1.217620849609375,
      1.4577642679214478,
      -0.9438682198524475,
      0.3058414161205292,
      -1.1233669519424438,
      -1.4025520086288452,
      1.557995319366455,
      -0.2371843457221985,
      -0.21977746486663818
    ],
    [
      -0.25497591495513916,
      -2.617405414581299,
      0.7227403521537781,
      0.4370153844356537,
      -0.8645564317703247,
      -0.0645461305975914,
      -1.1688563823699951,
      1.2156521081924438,
      -1.5801688432693481,
      -0.5252088904380798,
      -0.7028442621231079,
      0.7016435861587524,
      1.1925501823425293,
      -1.4681857824325562,
      0.6069797277450562,
      0.5662200450897217
    ],
    [
      -3.0613818168640137,
      -2.725125789642334,
      0.006022018846124411,
      3.7036821842193604,
      0.2342134565114975,
      -1.2754294872283936,
      -0.4358523190021515,
      2.527963638305664,
      -4.080104827880859,
      0.28827109932899475,
      0.9316675066947937,
      0.6533111929893494,
      5.167828559875488,
      0.8622737526893616,
      0.5553564429283142,
      -0.3274465799331665
    ],
    [
      0.5453040599822998,
      -0.14492981135845184,
      1.047684907913208,
      0.3666207492351532,
      0.4575456976890564,
      -0.5202962160110474,
      0.5994120836257935,
      1.2259399890899658,
      0.054511651396751404,
      -0.4181872606277466,
      -0.24545122683048248,
      -1.288298487663269,
      0.13598103821277618,
      0.3733901381492615,
      -1.5952250957489014,
      -0.03671817108988762
    ],
    [
      0.08749896287918091,
      1.7926886081695557,
      0.15474200248718262,
      -1.631083607673645,
      0.786147952079773,
      1.3542100191116333,
      0.466868132352829,
      -1.1361980438232422,
      3.9545390605926514,
      -0.11902371793985367,
      -0.222660094499588,
      0.6614665389060974,
      -2.2934892177581787,
      -0.2291831523180008,
      1.6313401460647583,
      -1.7543922662734985
    ],
    [
      -0.4681103229522705,
      2.085062265396118,
      -0.48497024178504944,
      -1.0713624954223633,
      0.5379815697669983,
      0.21255303919315338,
      0.7087477445602417,
      -1.1413908004760742,
      -0.21705348789691925,
      1.1841739416122437,
      0.010878751054406166,
      0.32922130823135376,
      -0.1728891283273697,
      0.34874099493026733,
      0.3495093882083893,
      0.7021092176437378
    ]
  ],
  "net.2.bias": [
    1.7341188192367554,
    0.589566707611084,
    -1.2051793336868286,
    0.08518897742033005,
    -1.487513780593872,
    0.726830005645752,
    1.224603533744812,
    1.0035074949264526
  ],
  "net.4.weight": [
    [
      -1.6310968399047852,
      1.7545832395553589,
      1.471774697303772,
      -1.1873078346252441,
      -2.9854204654693604,
      1.7279136180877686,
      -1.094217300415039,
      -1.2947967052459717
    ]
  ],
  "net.4.bias": [
    -1.4158334732055664
  ]
}