{
  "net.0.weight": [
    [
      1.9615174531936646,
      -0.34637632966041565,
      -0.019423188641667366,
      2.2760002613067627
    ],
    [
      0.00013453605060931295,
      -0.22274495661258698,
      -0.3021291494369507,
      0.4430072009563446
    ],
    [
      0.986415445804596,
      -1.203201174736023,
      -0.017772475257515907,
      -0.4370013177394867
    ],
    [
      0.8389890789985657,
      -0.5251359939575195,
      0.05077042430639267,
      -0.5554196238517761
    ],
    [
      0.6115420460700989,
      -0.4884416162967682,
      0.02218134142458439,
      0.22185714542865753
    ],
    [
      -1.0608114004135132,
      -0.2619505226612091,
      -0.27171364426612854,
      0.8328831195831299
    ],
    [
      -0.1187148243188858,
      -0.29292985796928406,
      -3.1010701656341553,
      0.03780774772167206
    ],
    [
      -2.8545360565185547,
      -1.0354136228561401,
      0.4657588005065918,
      -1.1503446102142334
    ],
    [
      -0.7080641984939575,
      2.4397971630096436,
      0.32788050174713135,
      0.3757908046245575
    ],
    [
      -0.6080929040908813,
      2.136183261871338,
      -0.011029209941625595,
      0.4523536264896393
    ],
    [
      0.7852029800415039,
      -0.5275891423225403,
      -0.014536768198013306,
      0.3842528164386749
    ],
    [
      0.7829859852790833,
      -0.7142104506492615,
      -0.0377940833568573,
      0.27536025643348694
    ],
    [
      1.9826489686965942,
      -2.129197835922241,
      -0.19821827113628387,
      -1.5679922103881836
    ],
    [
      -0.9020281434059143,
      0.908595860004425,
      -0.02144969254732132,
      0.46718841791152954
    ],
    [
      0.8205441236495972,
      0.03535355255007744,
      0.9181973934173584,
      -0.32687506079673767
    ],
    [
      -0.7224881052970886,
      0.2422190010547638,
      0.9068070650100708,
      -0.18586744368076324
    ]
  ],
  "net.0.bias": [
    1.9542900323867798,
    0.11109431087970734,
    0.4187716543674469,
    -0.3795182704925537,
    -0.19150473177433014,
    0.21080102026462555,
    1.5105005502700806,
    -0.6027002334594727,
    0.7306466102600098,
    0.3451152741909027,
    -0.48182570934295654,
    -0.18502597510814667,
    -1.3197593688964844,
    -0.10529524087905884,
    0.8474969267845154,
    0.7562042474746704
  ],
  "net.2.weight": [
    [
      0.4074196219444275,
      -0.426147997379303,
      -0.3900443911552429,
      -0.4807056188583374,
      -0.36053553223609924,
      -0.16214637458324432,
      -0.0812365934252739,
      0.9352898597717285,
      -1.4684743881225586,
      -0.8146277070045471,
      -0.07705565541982651,
      -0.06850099563598633,
      1.3361272811889648,
      0.6894701719284058,
      0.24159105122089386,
      0.3651377558708191
    ],
    [
      2.3690662384033203,
      0.5801987648010254,
      0.5778811573982239,
      -0.3764844536781311,
      0.03427836671471596,
      -0.10847818106412888,
      -1.0630145072937012,
      -0.1621280461549759,
      -0.49669307470321655,
      -0.6219369769096375,
      -0.4438117444515228,
      0.09782639890909195,
      0.20416833460330963,
      -0.7577289938926697,
      0.3071387708187103,
      0.6992136240005493
    ],
    [
      -0.8218882083892822,
      -0.6419678926467896,
      -1.2138078212738037,
      -0.11434075236320496,
      -0.20835313200950623,
      -0.22318097949028015,
      -0.22014164924621582,
      0.14074306190013885,
      -0.3343777656555176,
      0.014190565794706345,
      -0.15805108845233917,
      -0.832878053188324,
      -0.3066957890987396,
      0.9251434206962585,
      0.0024358818773180246,
      -0.7554289102554321
    ],
    [
      0.3815920650959015,
      -0.10403824597597122,
      0.9156581163406372,
      0.7569003701210022,
      0.10492423176765442,
      0.08136806637048721,
      -0.2737120985984802,
      1.0068305730819702,
      -0.4072418212890625,
      -0.6635215878486633,
      0.6374751329421997,
      0.6866567730903625,
      0.7285670638084412,
      -1.0964975357055664,
      0.3913867771625519,
      -0.15584668517112732
    ],
    [
      0.08337140828371048,
      -0.06333347409963608,
      0.7598719000816345,
      1.0741044282913208,
      0.6448705792427063,
      -0.6270644068717957,
      -0.2532007098197937,
      -0.15122850239276886,
      0.2757602334022522,
      -0.5789007544517517,
      0.9623364210128784,
      0.8582625985145569,
      0.5886890292167664,
      -0.9990866184234619,
      0.3932878077030182,
      -0.33708620071411133
    ],
    [
      1.0717817544937134,
      0.24917277693748474,
      -0.1957862228155136,
      -0.3761466145515442,
      -0.02775598131120205,
      -0.22572147846221924,
      -0.6935087442398071,
      1.0395468473434448,
      -0.8134568929672241,
      -0.5477343201637268,
      -0.10388949513435364,
      0.06962154805660248,
      0.7604085206985474,
      0.07944127172231674,
      0.038999248296022415,
      0.06679356843233109
    ],
    [
      -0.6940579414367676,
      0.20877964794635773,
      1.2401586771011353,
      -0.5549960136413574,
      -0.11783817410469055,
      0.6149917244911194,
      0.13485266268253326,
      -0.45552700757980347,
      1.121006727218628,
      0.011160307563841343,
      -0.2633410692214966,
      -0.11994548887014389,
      -1.0116392374038696,
      -0.42886170744895935,
      -0.8193063139915466,
      0.027202120050787926
    ],
    [
      0.43053656816482544,
      0.2290157824754715,
      0.7813705205917358,
      0.34641262888908386,
      0.13278913497924805,
      -0.02682008221745491,
      -0.25164759159088135,
      0.9228798747062683,
      -0.3202393651008606,
      -0.538591742515564,
      0.6139066219329834,
      0.6807938814163208,
      0.3941708207130432,
      -1.0599839687347412,
      0.010244614444673061,
      -0.3507678806781769
    ]
  ],
  "net.2.bias": [
    0.2525559067726135,
    0.8545136451721191,
    -0.004069720394909382,
    0.08613302558660507,
    -0.44858643412590027,
    0.04624482989311218,
    0.01636643335223198,
    0.24787573516368866
  ],
  "net.4.weight": [
    [
      0.7393977642059326,
      1.1675710678100586,
      0.995991051197052,
      -1.0235179662704468,
      -0.9189895987510681,
      0.8518547415733337,
      -1.259626030921936,
      -0.9024887084960938
    ]
  ],
  "net.4.bias": [
    -0.14476878941059113
  ]
}