{
  "net.0.weight": [
    [
      3.5606138706207275,
      0.9339780211448669,
      -0.07753941416740417,
      1.5148524045944214
    ],
    [
      -0.9916799664497375,
      -0.12745970487594604,
      -0.3461586833000183,
      0.7999635338783264
    ],
    [
      2.7113757133483887,
      -0.3162936866283417,
      0.06227370351552963,
      0.07296697050333023
    ],
    [
      0.6157007217407227,
      0.19809472560882568,
      -0.03489329665899277,
      -0.4304070770740509
    ],
    [
      0.9134040474891663,
      1.5474728345870972,
      0.21323488652706146,
      -0.5733974575996399
    ],
    [
      -0.3519686460494995,
      -0.6648293733596802,
      -0.3242238759994507,
      0.8079707622528076
    ],
    [
      -0.7632967829704285,
      -0.38115382194519043,
      -1.897937297821045,
      0.3268364369869232
    ],
    [
      -0.9121800661087036,
      -2.549907684326172,
      0.1490333527326584,
      -0.5615715384483337
    ],
    [
      0.8707525730133057,
      -0.41251441836357117,
      -0.4698701798915863,
      0.0907619446516037
    ],
    [
      1.5387309789657593,
      1.2224477529525757,
      -0.2736533582210541,
      -1.8376859426498413
    ],
    [
      -0.2227824181318283,
      -0.5281440019607544,
      0.9405885338783264,
      0.33887067437171936
    ],
    [
      -0.07629523426294327,
      -2.093031644821167,
      -0.0920993834733963,
      -0.5639151930809021
    ],
    [
      -1.352303147315979,
      0.469359815120697,
      -2.4041144847869873,
      -0.9641757011413574
    ],
    [
      -3.1560399532318115,
      -0.10042513161897659,
      0.03199837729334831,
      0.027904953807592392
    ],
    [
      1.657700777053833,
      2.489346742630005,
      -0.19133219122886658,
      -0.7162970304489136
    ],
    [
      -0.9693029522895813,
      -1.0908924341201782,
      0.6330052018165588,
      0.46465742588043213
    ]
  ],
  "net.0.bias": [
    1.494117259979248,
    -0.6222211718559265,
    0.2634631097316742,
    -0.7632770538330078,
    -0.6713106632232666,
    -0.03921421244740486,
    1.140709400177002,
    -0.35119327902793884,
    0.6855169534683228,
    -1.9565681219100952,
    -0.6210599541664124,
    -0.6743682622909546,
    -0.7981393337249756,
    0.0064704278483986855,
    -0.2914281189441681,
    0.7968930602073669
  ],
  "net.2.weight": [
    [
      -1.7029818296432495,
      -1.1535025835037231,
      0.3272305428981781,
      -0.26833677291870117,
      0.12460465729236603,
      0.006845530588179827,
      1.1293355226516724,
      -0.23518839478492737,
      -0.09058671444654465,
      -0.13034062087535858,
      -0.22453516721725464,
      0.2728424668312073,
      -0.7981987595558167,
      -1.314955234527588,
      -0.3991776406764984,
      -0.17014135420322418
    ],
    [
      0.6247164011001587,
      -0.5337197184562683,
      1.0454297065734863,
      0.2597770690917969,
      0.6529891490936279,
      -1.0369434356689453,
      -0.23932881653308868,
      -1.4986337423324585,
      0.2401925027370453,
      0.1862112581729889,
      -0.04446754977107048,
      -2.1036880016326904,
      0.5311366319656372,
      -1.4200173616409302,
      1.901822805404663,
      -0.1640290766954422
    ],
    [
      0.1383257508277893,
      0.2082928568124771,
      -0.4421093761920929,
      0.1146150678396225,
      0.6447259783744812,
      -0.36544516682624817,
      -0.3010777235031128,
      -1.2516751289367676,
      -0.3009520471096039,
      -0.15078724920749664,
      0.033308759331703186,
      -0.8718914985656738,
      -0.1223711296916008,
      0.6685805320739746,
      0.8247290849685669,
      -0.5339145660400391
    ],
    [
      1.6671593189239502,
      -0.4550342559814453,
      0.9233744144439697,
      0.11601287126541138,
      -0.0321810320019722,
      0.17616084218025208,
      -1.3127732276916504,
      0.005944892298430204,
      0.24324984848499298,
      -0.4195558428764343,
      0.32352983951568604,
      0.7001980543136597,
      1.4537261724472046,
      -1.1540920734405518,
      0.7204798460006714,
      -0.08033648878335953
    ],
    [
      -0.5017461180686951,
      0.031900521367788315,
      -0.21872524917125702,
      0.8920377492904663,
      0.691694438457489,
      -0.479044109582901,
      0.07204250991344452,
      -0.16040125489234924,
      0.07777996361255646,
      1.7198026180267334,
      0.5482962131500244,
      0.24607421457767487,
      0.33127567172050476,
      -0.03798411414027214,
      0.09645193070173264,
      -1.048730731010437
    ],
    [
      0.5094360709190369,
      0.1367970108985901,
      0.23657028377056122,
      -0.4410710036754608,
      -0.117455393075943,
      0.13924068212509155,
      -0.35088911652565,
      0.34294256567955017,
      -0.4151960015296936,
      -1.2185381650924683,
      -0.14285138249397278,
      -0.13658460974693298,
      0.5898194313049316,
      -0.01874743402004242,
      -0.244505375623703,
      0.28536614775657654
    ],
    [
      0.4005848169326782,
      0.5414998531341553,
      0.05280890688300133,
      -0.19089438021183014,
      0.22625015676021576,
      0.14211852848529816,
      0.3611149191856384,
      0.07494383305311203,
      0.4787673354148865,
      0.8361786007881165,
      0.5862063765525818,
      0.14633327722549438,
      -0.7385379672050476,
      1.005554437637329,
      -0.173223614692688,
      -0.2996021807193756
    ],
    [
      0.14159569144248962,
      -0.04606464505195618,
      -0.6447002291679382,
      -0.5773981809616089,
      -1.2720868587493896,
      0.5097340941429138,
      0.3061743676662445,
      1.4224218130111694,
      -0.13418537378311157,
      -0.2972370982170105,
      0.010957205668091774,
      0.8338317275047302,
      -0.2955350875854492,
      1.032935619354248,
      -1.8012938499450684,
      0.7499585151672363
    ]
  ],
  "net.2.bias": [
    0.2923513948917389,
    -0.10504229366779327,
    0.07956063002347946,
    0.2726875841617584,
    -0.5446678996086121,
    -0.006030238699167967,
    -0.10811926424503326,
    0.23933419585227966
  ],
  "net.4.weight": [
    [
      0.5849101543426514,
      -0.8695316910743713,
      0.4584563076496124,
      -0.7884779572486877,
      -0.6158866882324219,
      0.3504985272884369,
      -0.3320087194442749,
      -1.0014705657958984
    ]
  ],
  "net.4.bias": [
    -0.6347486972808838
  ]
}